digraph Tree {
node [shape=box] ;
0 [label="glucose <= 154.5\ngini = 0.446\nsamples = 313\nvalue = [208, 105]"] ;
1 [label="age <= 28.5\ngini = 0.364\nsamples = 263\nvalue = [200, 63]"] ;
0 -> 1 [labeldistance=2.5, labelangle=45, headlabel="True"] ;
2 [label="bmi <= 31.4\ngini = 0.218\nsamples = 161\nvalue = [141, 20]"] ;
1 -> 2 ;
3 [label="age <= 27.5\ngini = 0.05\nsamples = 78\nvalue = [76, 2]"] ;
2 -> 3 ;
4 [label="thickness <= 13.5\ngini = 0.026\nsamples = 76\nvalue = [75, 1]"] ;
3 -> 4 ;
5 [label="gini = 0.153\nsamples = 12\nvalue = [11, 1]"] ;
4 -> 5 ;
6 [label="gini = 0.0\nsamples = 64\nvalue = [64, 0]"] ;
4 -> 6 ;
7 [label="gini = 0.5\nsamples = 2\nvalue = [1, 1]"] ;
3 -> 7 ;
8 [label="dia_pedig <= 0.318\ngini = 0.34\nsamples = 83\nvalue = [65, 18]"] ;
2 -> 8 ;
9 [label="gini = 0.124\nsamples = 30\nvalue = [28, 2]"] ;
8 -> 9 ;
10 [label="glucose <= 103.0\ngini = 0.422\nsamples = 53\nvalue = [37, 16]"] ;
8 -> 10 ;
11 [label="gini = 0.269\nsamples = 25\nvalue = [21, 4]"] ;
10 -> 11 ;
12 [label="gini = 0.49\nsamples = 28\nvalue = [16, 12]"] ;
10 -> 12 ;
13 [label="insulin <= 87.5\ngini = 0.488\nsamples = 102\nvalue = [59, 43]"] ;
1 -> 13 ;
14 [label="gini = 0.08\nsamples = 24\nvalue = [23, 1]"] ;
13 -> 14 ;
15 [label="bp <= 77.0\ngini = 0.497\nsamples = 78\nvalue = [36, 42]"] ;
13 -> 15 ;
16 [label="gini = 0.478\nsamples = 48\nvalue = [29, 19]"] ;
15 -> 16 ;
17 [label="gini = 0.358\nsamples = 30\nvalue = [7, 23]"] ;
15 -> 17 ;
18 [label="dia_pedig <= 0.146\ngini = 0.269\nsamples = 50\nvalue = [8, 42]"] ;
0 -> 18 [labeldistance=2.5, labelangle=-45, headlabel="False"] ;
19 [label="gini = 0.0\nsamples = 2\nvalue = [2, 0]"] ;
18 -> 19 ;
20 [label="gini = 0.219\nsamples = 48\nvalue = [6, 42]"] ;
18 -> 20 ;
}