digraph Tree {
node [shape=box] ;
0 [label="glucose <= 127.5\ngini = 0.443\nsamples = 392\nvalue = [262, 130]"] ;
1 [label="insulin <= 143.5\ngini = 0.254\nsamples = 241\nvalue = [205, 36]"] ;
0 -> 1 [labeldistance=2.5, labelangle=45, headlabel="True"] ;
2 [label="dia_pedig <= 0.495\ngini = 0.161\nsamples = 181\nvalue = [165, 16]"] ;
1 -> 2 ;
3 [label="bmi <= 45.35\ngini = 0.068\nsamples = 113\nvalue = [109, 4]"] ;
2 -> 3 ;
4 [label="pregs <= 9.5\ngini = 0.053\nsamples = 111\nvalue = [108, 3]"] ;
3 -> 4 ;
5 [label="bp <= 51.0\ngini = 0.037\nsamples = 107\nvalue = [105, 2]"] ;
4 -> 5 ;
6 [label="gini = 0.245\nsamples = 7\nvalue = [6, 1]"] ;
5 -> 6 ;
7 [label="insulin <= 36.5\ngini = 0.02\nsamples = 100\nvalue = [99, 1]"] ;
5 -> 7 ;
8 [label="gini = 0.219\nsamples = 8\nvalue = [7, 1]"] ;
7 -> 8 ;
9 [label="gini = 0.0\nsamples = 92\nvalue = [92, 0]"] ;
7 -> 9 ;
10 [label="gini = 0.375\nsamples = 4\nvalue = [3, 1]"] ;
4 -> 10 ;
11 [label="gini = 0.5\nsamples = 2\nvalue = [1, 1]"] ;
3 -> 11 ;
12 [label="glucose <= 103.0\ngini = 0.291\nsamples = 68\nvalue = [56, 12]"] ;
2 -> 12 ;
13 [label="gini = 0.15\nsamples = 49\nvalue = [45, 4]"] ;
12 -> 13 ;
14 [label="gini = 0.488\nsamples = 19\nvalue = [11, 8]"] ;
12 -> 14 ;
15 [label="age <= 28.5\ngini = 0.444\nsamples = 60\nvalue = [40, 20]"] ;
1 -> 15 ;
16 [label="gini = 0.117\nsamples = 32\nvalue = [30, 2]"] ;
15 -> 16 ;
17 [label="gini = 0.459\nsamples = 28\nvalue = [10, 18]"] ;
15 -> 17 ;
18 [label="glucose <= 165.5\ngini = 0.47\nsamples = 151\nvalue = [57, 94]"] ;
0 -> 18 [labeldistance=2.5, labelangle=-45, headlabel="False"] ;
19 [label="age <= 23.5\ngini = 0.5\nsamples = 105\nvalue = [52, 53]"] ;
18 -> 19 ;
20 [label="gini = 0.1\nsamples = 19\nvalue = [18, 1]"] ;
19 -> 20 ;
21 [label="dia_pedig <= 0.725\ngini = 0.478\nsamples = 86\nvalue = [34, 52]"] ;
19 -> 21 ;
22 [label="thickness <= 16.0\ngini = 0.498\nsamples = 68\nvalue = [32, 36]"] ;
21 -> 22 ;
23 [label="gini = 0.0\nsamples = 4\nvalue = [4, 0]"] ;
22 -> 23 ;
24 [label="dia_pedig <= 0.616\ngini = 0.492\nsamples = 64\nvalue = [28, 36]"] ;
22 -> 24 ;
25 [label="bp <= 71.0\ngini = 0.472\nsamples = 55\nvalue = [21, 34]"] ;
24 -> 25 ;
26 [label="gini = 0.255\nsamples = 20\nvalue = [3, 17]"] ;
25 -> 26 ;
27 [label="gini = 0.5\nsamples = 35\nvalue = [18, 17]"] ;
25 -> 27 ;
28 [label="gini = 0.346\nsamples = 9\nvalue = [7, 2]"] ;
24 -> 28 ;
29 [label="gini = 0.198\nsamples = 18\nvalue = [2, 16]"] ;
21 -> 29 ;
30 [label="gini = 0.194\nsamples = 46\nvalue = [5, 41]"] ;
18 -> 30 ;
}